<?xml version="1.0"?>
<opencv_storage>
<cascade>
  <stageType>BOOST</stageType>
  <featureType>LBP</featureType>
  <height>40</height>
  <width>60</width>
  <stageParams>
    <boostType>GAB</boostType>
    <minHitRate>9.9500000476837158e-001</minHitRate>
    <maxFalseAlarm>4.0000000596046448e-001</maxFalseAlarm>
    <weightTrimRate>9.4999999999999996e-001</weightTrimRate>
    <maxDepth>1</maxDepth>
    <maxWeakCount>100</maxWeakCount></stageParams>
  <featureParams>
    <maxCatCount>256</maxCatCount>
    <featSize>1</featSize></featureParams>
  <stageNum>16</stageNum>
  <stages>
    <!-- stage 0 -->
    <_>
      <maxWeakCount>6</maxWeakCount>
      <stageThreshold>-1.0124175548553467e+000</stageThreshold>
      <weakClassifiers>
        <_>
          <internalNodes>
            0 -1 18 -352327958 784121854 -50397528 684388094 -17825796
            -8585217 -545292802 -387973121</internalNodes>
          <leafValues>
            -5.8176946640014648e-001 7.0550578832626343e-001</leafValues></_>
        <_>
          <internalNodes>
            0 -1 99 -8132862 -286539930 -1114208 -1367974092 -601129708
            -16513 2139062036 -152838333</internalNodes>
          <leafValues>
            -5.1384639739990234e-001 7.8697919845581055e-001</leafValues></_>
        <_>
          <internalNodes>
            0 -1 61 -204473400 -640991096 -1610573425 -785712999
            -393592768 -39157698 -1608993874 -486540305</internalNodes>
          <leafValues>
            -6.4373123645782471e-001 6.4068424701690674e-001</leafValues></_>
        <_>
          <internalNodes>
            0 -1 20 -1048914 82837487 -285442518 1760552703 -1208058586
            822017919 -134238489 -402653257</internalNodes>
          <leafValues>
            -5.5344486236572266e-001 6.7034566402435303e-001</leafValues></_>
        <_>
          <internalNodes>
            0 -1 100 -105941754 -1074069506 -1091063898 -1732296705
            1067410756 -673876105 2013204327 -201596997</internalNodes>
          <leafValues>
            -5.0431996583938599e-001 6.9690984487533569e-001</leafValues></_>
        <_>
          <internalNodes>
            0 -1 52 -33563726 -178566525 -1987952614 1964110993
            1091195084 965313162 1208738122 557923215</internalNodes>
          <leafValues>
            -7.2637128829956055e-001 5.1014351844787598e-001</leafValues></_></weakClassifiers></_>
    <!-- stage 1 -->
    <_>
      <maxWeakCount>5</maxWeakCount>
      <stageThreshold>-7.9105907678604126e-001</stageThreshold>
      <weakClassifiers>
        <_>
          <internalNodes>
            0 -1 0 -926876946 1347211274 -1878749182 286507030
            -1073626988 -2147483520 -268189181 -657997109</internalNodes>
          <leafValues>
            -5.8486706018447876e-001 5.1193058490753174e-001</leafValues></_>
        <_>
          <internalNodes>
            0 -1 109 -68696758 1083657370 -921649152 -431022075
            -1576894208 822362633 -1056470272 -170145310</internalNodes>
          <leafValues>
            -5.5352139472961426e-001 5.6651151180267334e-001</leafValues></_>
        <_>
          <internalNodes>
            0 -1 76 -1498656424 -4353798 -1786275491 -103722731
            177887978 -338227153 2064657310 -874269880</internalNodes>
          <leafValues>
            -6.6966128349304199e-001 4.8163178563117981e-001</leafValues></_>
        <_>
          <internalNodes>
            0 -1 35 -67767064 1367540164 -179517308 -108530480
            1276702860 -523446646 1074842510 1083192976</internalNodes>
          <leafValues>
            -7.5071388483047485e-001 3.8089755177497864e-001</leafValues></_>
        <_>
          <internalNodes>
            0 -1 108 -181414398 1862254446 2128478056 1869347580
            794719492 939360255 -4328096 -148111449</internalNodes>
          <leafValues>
            -4.6070456504821777e-001 6.5939182043075562e-001</leafValues></_></weakClassifiers></_>
    <!-- stage 2 -->
    <_>
      <maxWeakCount>5</maxWeakCount>
      <stageThreshold>-5.4691392183303833e-001</stageThreshold>
      <weakClassifiers>
        <_>
          <internalNodes>
            0 -1 40 -84939642 -1393901842 -16929184 -286346001
            2121741652 -8980481 2012577121 -2097289</internalNodes>
          <leafValues>
            -5.1724135875701904e-001 6.3068920373916626e-001</leafValues></_>
        <_>
          <internalNodes>
            0 -1 95 -22546942 -16826378 -67115474 -402915457 -1099088121
            2147450750 -655423 -65</internalNodes>
          <leafValues>
            -4.5432475209236145e-001 7.6153737306594849e-001</leafValues></_>
        <_>
          <internalNodes>
            0 -1 51 -1598366050 -537137180 -103809029 -68157443
            -1631402796 -268443651 -693043457 -1415855314</internalNodes>
          <leafValues>
            -4.9747785925865173e-001 6.2338989973068237e-001</leafValues></_>
        <_>
          <internalNodes>
            0 -1 11 -273875252 1607952193 1238159617 1370702081
            444671743 -1379821951 1342275806 1464296224</internalNodes>
          <leafValues>
            -6.2545222043991089e-001 4.3277731537818909e-001</leafValues></_>
        <_>
          <internalNodes>
            0 -1 112 -628698910 -1925181078 -783531776 -1495314425
            2013479427 -1031192448 -1572634064 -138982876</internalNodes>
          <leafValues>
            -5.8346450328826904e-001 4.8935273289680481e-001</leafValues></_></weakClassifiers></_>
    <!-- stage 3 -->
    <_>
      <maxWeakCount>5</maxWeakCount>
      <stageThreshold>-5.7550722360610962e-001</stageThreshold>
      <weakClassifiers>
        <_>
          <internalNodes>
            0 -1 22 -207097942 -1035566846 -1744830464 -322514176
            -209481476 561288 -209020232 -486803013</internalNodes>
          <leafValues>
            -6.1611878871917725e-001 5.0261235237121582e-001</leafValues></_>
        <_>
          <internalNodes>
            0 -1 50 1822973271 -1988160879 1090525527 1707204893
            -82248577 -1953644535 -83427845 -605095745</internalNodes>
          <leafValues>
            -5.0107818841934204e-001 5.9259283542633057e-001</leafValues></_>
        <_>
          <internalNodes>
            0 -1 104 -4988126 -50857521 -16863706 -269537425 2002745095
            -1083179523 -705757 -135269085</internalNodes>
          <leafValues>
            -4.5961311459541321e-001 6.6576409339904785e-001</leafValues></_>
        <_>
          <internalNodes>
            0 -1 43 -124651400 -1349807928 -1621828392 -2080697908
            -1836546942 -1697021798 1344324300 1919999491</internalNodes>
          <leafValues>
            -7.6480317115783691e-001 3.7997788190841675e-001</leafValues></_>
        <_>
          <internalNodes>
            0 -1 42 -33559345 795344879 -555798746 2078801526 1458008915
            1735819255 -565465 -489180057</internalNodes>
          <leafValues>
            -4.4629609584808350e-001 6.7202162742614746e-001</leafValues></_></weakClassifiers></_>
    <!-- stage 4 -->
    <_>
      <maxWeakCount>6</maxWeakCount>
      <stageThreshold>-1.1247700452804565e+000</stageThreshold>
      <weakClassifiers>
        <_>
          <internalNodes>
            0 -1 49 902157565 -889137907 -519976677 -304510051
            -586659258 -614465527 -1425761457 -356435236</internalNodes>
          <leafValues>
            -5.5991733074188232e-001 4.7424891591072083e-001</leafValues></_>
        <_>
          <internalNodes>
            0 -1 36 -52953210 804257767 788375328 -1 2004318054 -559107
            2147450743 -201326781</internalNodes>
          <leafValues>
            -3.8208889961242676e-001 6.5330702066421509e-001</leafValues></_>
        <_>
          <internalNodes>
            0 -1 107 -38275121 -198681 -553861312 -151846914 2138570500
            2113830911 -8538640 -9963625</internalNodes>
          <leafValues>
            -3.1399643421173096e-001 8.0455595254898071e-001</leafValues></_>
        <_>
          <internalNodes>
            0 -1 91 1346376981 1976398303 -116822737 -11820839
            -389006109 -87521085 747812938 13923807</internalNodes>
          <leafValues>
            -6.4085924625396729e-001 4.1764390468597412e-001</leafValues></_>
        <_>
          <internalNodes>
            0 -1 15 -1186029594 -1152936207 1501889119 1506383041
            592671033 1931677954 2055991971 1196904257</internalNodes>
          <leafValues>
            -6.3762205839157104e-001 4.1916900873184204e-001</leafValues></_>
        <_>
          <internalNodes>
            0 -1 70 -543009198 -201143036 -1995323020 1307358544
            -1837104694 -6241910 738388842 650538920</internalNodes>
          <leafValues>
            -7.5808131694793701e-001 3.5121077299118042e-001</leafValues></_></weakClassifiers></_>
    <!-- stage 5 -->
    <_>
      <maxWeakCount>7</maxWeakCount>
      <stageThreshold>-6.3497883081436157e-001</stageThreshold>
      <weakClassifiers>
        <_>
          <internalNodes>
            0 -1 34 -8225 254803950 -65537 1610592253 -648098226
            -268436415 1324769151 -1680869412</internalNodes>
          <leafValues>
            -4.8087432980537415e-001 5.3366583585739136e-001</leafValues></_>
        <_>
          <internalNodes>
            0 -1 17 -17316626 1241551629 -2146238454 -2142514751
            1073856571 1795276803 -1450667302 -459283761</internalNodes>
          <leafValues>
            -4.6312606334686279e-001 4.9996787309646606e-001</leafValues></_>
        <_>
          <internalNodes>
            0 -1 105 -9440630 -435695027 67276998 -585903918 1881295105
            1073776643 -352192320 -151002293</internalNodes>
          <leafValues>
            -4.3474769592285156e-001 5.2072215080261230e-001</leafValues></_>
        <_>
          <internalNodes>
            0 -1 66 -1094053670 1609056244 -1090637827 1974419435
            -1208025601 -1610645513 -1392599109 -16779570</internalNodes>
          <leafValues>
            -4.3077120184898376e-001 5.9893256425857544e-001</leafValues></_>
        <_>
          <internalNodes>
            0 -1 29 1950219699 -663752553 1158631685 1468257473
            1887717926 1679693205 1761794917 1082646465</internalNodes>
          <leafValues>
            -5.3419953584671021e-001 4.9636280536651611e-001</leafValues></_>
        <_>
          <internalNodes>
            0 -1 87 -1995935688 1099366417 -1048020577 -540311031
            -763038637 -114454445 -1845443809 -1461012392</internalNodes>
          <leafValues>
            -5.3154885768890381e-001 4.9312481284141541e-001</leafValues></_>
        <_>
          <internalNodes>
            0 -1 3 -1374945080 939950295 -1795051169 2101989779
            -469710853 254509249 -75451655 1976194890</internalNodes>
          <leafValues>
            -7.0294857025146484e-001 3.4419128298759460e-001</leafValues></_></weakClassifiers></_>
    <!-- stage 6 -->
    <_>
      <maxWeakCount>8</maxWeakCount>
      <stageThreshold>-4.7635367512702942e-001</stageThreshold>
      <weakClassifiers>
        <_>
          <internalNodes>
            0 -1 80 -71248728 -118250424 -2122141628 -1210384210
            1912749184 -1936670582 -1453270862 -1078404407</internalNodes>
          <leafValues>
            -5.6944441795349121e-001 3.7837839126586914e-001</leafValues></_>
        <_>
          <internalNodes>
            0 -1 96 -181928190 1324154871 -268620088 -420479003
            2100901190 -2097153 -268585181 -146800905</internalNodes>
          <leafValues>
            -4.1480639576911926e-001 5.5915015935897827e-001</leafValues></_>
        <_>
          <internalNodes>
            0 -1 62 -1075905958 -342937440 -805203597 1599287709
            -24229812 -920516230 -2088087681 -542127784</internalNodes>
          <leafValues>
            -5.9803986549377441e-001 4.4028344750404358e-001</leafValues></_>
        <_>
          <internalNodes>
            0 -1 39 -16796689 -1360382001 -20880 -51644673 737367894
            -559113 -8423647 -790537</internalNodes>
          <leafValues>
            -3.8782334327697754e-001 6.7603981494903564e-001</leafValues></_>
        <_>
          <internalNodes>
            0 -1 46 -211887942 555118848 -812860284 1731687937
            -1073429218 -1031225316 -2134865649 35050954</internalNodes>
          <leafValues>
            -6.8059980869293213e-001 3.6259827017784119e-001</leafValues></_>
        <_>
          <internalNodes>
            0 -1 37 476821219 -359557841 287313152 1436127443 809501447
            1879261266 -1459303485 1394045939</internalNodes>
          <leafValues>
            -5.2088475227355957e-001 5.1447081565856934e-001</leafValues></_>
        <_>
          <internalNodes>
            0 -1 83 430464186 1402073176 -1853533813 -2061791203
            1745354786 -2138946877 595663032 141446665</internalNodes>
          <leafValues>
            -6.7888760566711426e-001 3.7713560461997986e-001</leafValues></_>
        <_>
          <internalNodes>
            0 -1 27 -1962412121 -1927428864 268566848 1511149871
            1495867664 1109475906 -2077863136 -542719669</internalNodes>
          <leafValues>
            -5.7022744417190552e-001 4.1699758172035217e-001</leafValues></_></weakClassifiers></_>
    <!-- stage 7 -->
    <_>
      <maxWeakCount>8</maxWeakCount>
      <stageThreshold>-1.1332724094390869e+000</stageThreshold>
      <weakClassifiers>
        <_>
          <internalNodes>
            0 -1 54 -1626434338 -1191014075 -2062510817 534752259
            -892301601 730693787 -1299797089 -291087986</internalNodes>
          <leafValues>
            -5.2452027797698975e-001 4.0748441219329834e-001</leafValues></_>
        <_>
          <internalNodes>
            0 -1 111 -4210226 -890568710 -285278684 2139008879
            -970496762 1709670236 -671762906 -555778249</internalNodes>
          <leafValues>
            -4.3838623166084290e-001 4.7815763950347900e-001</leafValues></_>
        <_>
          <internalNodes>
            0 -1 84 533680600 -651597682 -1120314411 529367317 706614846
            -90602901 -400519716 -8978108</internalNodes>
          <leafValues>
            -5.3997534513473511e-001 4.2094373703002930e-001</leafValues></_>
        <_>
          <internalNodes>
            0 -1 28 -209202998 1082773633 1392656556 -200261241
            -2004307778 -603881344 -125767014 -256903033</internalNodes>
          <leafValues>
            -4.6957811713218689e-001 4.9670431017875671e-001</leafValues></_>
        <_>
          <internalNodes>
            0 -1 73 -308651888 1560771033 -754361713 -75280111
            -603174716 167772362 1083051 1996407522</internalNodes>
          <leafValues>
            -4.8572081327438354e-001 4.7076031565666199e-001</leafValues></_>
        <_>
          <internalNodes>
            0 -1 67 -330706489 -180170145 -1602060122 1086752842
            -238011711 1953065030 -362337395 818071668</internalNodes>
          <leafValues>
            -5.6617730855941772e-001 4.1555228829383850e-001</leafValues></_>
        <_>
          <internalNodes>
            0 -1 98 -685116350 -1359479041 -1090556378 2146406245
            2145875521 2013100023 -1074268250 -404226049</internalNodes>
          <leafValues>
            -4.5018237829208374e-001 5.3434753417968750e-001</leafValues></_>
        <_>
          <internalNodes>
            0 -1 12 -1209012015 -142134889 -736471996 -713592766
            -1130114696 -627867463 1149256684 1429291887</internalNodes>
          <leafValues>
            -5.6322515010833740e-001 4.5101928710937500e-001</leafValues></_></weakClassifiers></_>
    <!-- stage 8 -->
    <_>
      <maxWeakCount>8</maxWeakCount>
      <stageThreshold>-4.7749313712120056e-001</stageThreshold>
      <weakClassifiers>
        <_>
          <internalNodes>
            0 -1 6 -1884660650 120573393 -536519841 190813023
            -1096752389 993583112 -75449349 -66209268</internalNodes>
          <leafValues>
            -5.7260918617248535e-001 3.6562204360961914e-001</leafValues></_>
        <_>
          <internalNodes>
            0 -1 16 -898438270 9363495 -2146596250 1610663937
            -1862040630 1411563552 -100302134 -446169101</internalNodes>
          <leafValues>
            -5.4683572053909302e-001 3.8590264320373535e-001</leafValues></_>
        <_>
          <internalNodes>
            0 -1 106 -721178622 -1072996245 -1048444786 -491453758
            1925980424 9109664 -909446142 -202383161</internalNodes>
          <leafValues>
            -4.6660622954368591e-001 4.8374259471893311e-001</leafValues></_>
        <_>
          <internalNodes>
            0 -1 13 1385363064 -273989451 -577218865 -45226807
            -771186104 -1437432681 268499791 -582457556</internalNodes>
          <leafValues>
            -5.3996956348419189e-001 4.8161780834197998e-001</leafValues></_>
        <_>
          <internalNodes>
            0 -1 55 -1154333488 -1156065899 -1052452549 1360744776
            -133150080 -342163264 -1609012037 -71138403</internalNodes>
          <leafValues>
            -4.8234015703201294e-001 4.8589840531349182e-001</leafValues></_>
        <_>
          <internalNodes>
            0 -1 30 -6299174 -249605516 218219588 310661589 -870698659
            -1316289536 236543885 1484322818</internalNodes>
          <leafValues>
            -5.6139558553695679e-001 4.1254755854606628e-001</leafValues></_>
        <_>
          <internalNodes>
            0 -1 5 -290918524 1905528961 -788426239 1259582855
            -1710683063 -1068268390 -1587408757 1492500101</internalNodes>
          <leafValues>
            -5.6005769968032837e-001 4.1526940464973450e-001</leafValues></_>
        <_>
          <internalNodes>
            0 -1 48 -1835794761 587345990 11013725 -1090332629 814321243
            -804943358 -1606112570 749445703</internalNodes>
          <leafValues>
            -5.4147517681121826e-001 4.3100258708000183e-001</leafValues></_></weakClassifiers></_>
    <!-- stage 9 -->
    <_>
      <maxWeakCount>7</maxWeakCount>
      <stageThreshold>-5.8441942930221558e-001</stageThreshold>
      <weakClassifiers>
        <_>
          <internalNodes>
            0 -1 19 -319815681 2092760830 -69966 -75829250 -1073808129
            2147287037 -268435473 -356515841</internalNodes>
          <leafValues>
            -3.5928145051002502e-001 6.7375886440277100e-001</leafValues></_>
        <_>
          <internalNodes>
            0 -1 97 -24424182 -26509337 -229393 -1124368689 -1208056571
            1862254451 1962925995 -203686421</internalNodes>
          <leafValues>
            -3.6327686905860901e-001 5.6886053085327148e-001</leafValues></_>
        <_>
          <internalNodes>
            0 -1 32 780705464 -1383362495 520262139 499865923 -23266678
            -156628981 1854033550 2017928874</internalNodes>
          <leafValues>
            -6.5580666065216064e-001 3.2494387030601501e-001</leafValues></_>
        <_>
          <internalNodes>
            0 -1 2 -538809462 -139776537 -1409877001 959671213
            -285212741 -671252494 -1897398806 -1578954789</internalNodes>
          <leafValues>
            -4.3066594004631042e-001 5.0084036588668823e-001</leafValues></_>
        <_>
          <internalNodes>
            0 -1 72 -1515074854 -1383348136 21322549 -980037231
            -1693431598 -608566965 845694863 210824289</internalNodes>
          <leafValues>
            -5.8496040105819702e-001 4.0413203835487366e-001</leafValues></_>
        <_>
          <internalNodes>
            0 -1 21 -358618142 -1907485938 50514254 -895430106 391852865
            -1737912183 -1299059373 -254625578</internalNodes>
          <leafValues>
            -5.9711301326751709e-001 3.4784904122352600e-001</leafValues></_>
        <_>
          <internalNodes>
            0 -1 94 -106213461 15138702 2130603754 1761589158
            -1612728481 350060405 2095051310 -331399285</internalNodes>
          <leafValues>
            -4.3504244089126587e-001 5.3021657466888428e-001</leafValues></_></weakClassifiers></_>
    <!-- stage 10 -->
    <_>
      <maxWeakCount>8</maxWeakCount>
      <stageThreshold>-8.1410884857177734e-001</stageThreshold>
      <weakClassifiers>
        <_>
          <internalNodes>
            0 -1 9 -925052434 -733949680 -2147479280 -2143240190
            -805191613 -1023139837 -1073626837 -22547781</internalNodes>
          <leafValues>
            -5.8695650100708008e-001 3.6007463932037354e-001</leafValues></_>
        <_>
          <internalNodes>
            0 -1 71 -1424026466 737345617 -2059284101 -1961803579
            -1148576518 -825769792 -1358249029 1537098600</internalNodes>
          <leafValues>
            -5.5670362710952759e-001 3.6646205186843872e-001</leafValues></_>
        <_>
          <internalNodes>
            0 -1 92 -61517791 -753956777 1359240095 2043363839 425083371
            -771568503 462614671 10673579</internalNodes>
          <leafValues>
            -5.7647335529327393e-001 3.4334412217140198e-001</leafValues></_>
        <_>
          <internalNodes>
            0 -1 38 -1698769698 -1369471984 671863568 -2065363580
            -1399570152 1556613301 738761471 1935699590</internalNodes>
          <leafValues>
            -7.0469564199447632e-001 3.0967083573341370e-001</leafValues></_>
        <_>
          <internalNodes>
            0 -1 90 2059738469 -149438455 1074417664 -250887511
            1295068913 -1551786749 -880506997 165206063</internalNodes>
          <leafValues>
            -5.3893280029296875e-001 4.2153656482696533e-001</leafValues></_>
        <_>
          <internalNodes>
            0 -1 14 -1601975346 583852067 1140945154 1784594530
            -192700287 1611530506 -1867537656 -223616005</internalNodes>
          <leafValues>
            -5.2986419200897217e-001 4.3305835127830505e-001</leafValues></_>
        <_>
          <internalNodes>
            0 -1 78 -7679798 274141425 -1827004660 532656717 973238458
            -2097102686 177849314 748312799</internalNodes>
          <leafValues>
            -6.2417107820510864e-001 3.8494202494621277e-001</leafValues></_>
        <_>
          <internalNodes>
            0 -1 53 -745094313 -935309233 -1857971555 1263160745
            1939334064 1283490954 -314296829 491315811</internalNodes>
          <leafValues>
            -5.0887721776962280e-001 4.8583835363388062e-001</leafValues></_></weakClassifiers></_>
    <!-- stage 11 -->
    <_>
      <maxWeakCount>9</maxWeakCount>
      <stageThreshold>-7.2104680538177490e-001</stageThreshold>
      <weakClassifiers>
        <_>
          <internalNodes>
            0 -1 23 -50335761 -1377763338 -524302 -982720852 -1
            1073609982 -135172 -554176770</internalNodes>
          <leafValues>
            -3.8825449347496033e-001 5.5786347389221191e-001</leafValues></_>
        <_>
          <internalNodes>
            0 -1 47 -745089794 -2054963072 -317545985 -807337652
            -1154887098 1328679171 -2060810209 -607723772</internalNodes>
          <leafValues>
            -5.8157861232757568e-001 3.5349819064140320e-001</leafValues></_>
        <_>
          <internalNodes>
            0 -1 103 -601382176 -795246242 -1174404640 -976650096
            939917350 76693632 726201446 -91255070</internalNodes>
          <leafValues>
            -5.2116763591766357e-001 4.0579289197921753e-001</leafValues></_>
        <_>
          <internalNodes>
            0 -1 68 -1188931248 -683179045 755016660 -832831031
            696795643 727749136 1753234156 1237559354</internalNodes>
          <leafValues>
            -5.8170700073242188e-001 3.9176741242408752e-001</leafValues></_>
        <_>
          <internalNodes>
            0 -1 1 -827414834 696262789 285282783 -583335863 -2079751446
            -644972136 -2134782246 -146569674</internalNodes>
          <leafValues>
            -5.3852766752243042e-001 4.3487232923507690e-001</leafValues></_>
        <_>
          <internalNodes>
            0 -1 44 1867767660 1574295632 -846585106 387241348
            -1932328716 -2013167605 1484843464 2135215508</internalNodes>
          <leafValues>
            -6.3111901283264160e-001 3.8358190655708313e-001</leafValues></_>
        <_>
          <internalNodes>
            0 -1 60 -13374305 -17061190 1584086860 -1209040899 909361140
            -294357018 -1569390834 -1505821129</internalNodes>
          <leafValues>
            -4.3303394317626953e-001 5.4528033733367920e-001</leafValues></_>
        <_>
          <internalNodes>
            0 -1 82 2142764491 1593531192 -18946651 297608690 -8505859
            -1888060076 -722436194 -572549697</internalNodes>
          <leafValues>
            -3.6319640278816223e-001 6.5248346328735352e-001</leafValues></_>
        <_>
          <internalNodes>
            0 -1 24 -2042895474 1083220227 1150976 -1964048383
            -2146955173 815923344 1644904457 -255074177</internalNodes>
          <leafValues>
            -4.9621352553367615e-001 4.8613771796226501e-001</leafValues></_></weakClassifiers></_>
    <!-- stage 12 -->
    <_>
      <maxWeakCount>8</maxWeakCount>
      <stageThreshold>-7.0444452762603760e-001</stageThreshold>
      <weakClassifiers>
        <_>
          <internalNodes>
            0 -1 10 1602392495 1632700195 293609444 1226834466
            -1562787621 -1952823142 290821275 1464299850</internalNodes>
          <leafValues>
            -5.7091778516769409e-001 3.5721018910408020e-001</leafValues></_>
        <_>
          <internalNodes>
            0 -1 64 389275259 757461266 -1845357089 -1860978223
            411862174 -1975557477 -25257029 1049852076</internalNodes>
          <leafValues>
            -4.4175076484680176e-001 4.4630998373031616e-001</leafValues></_>
        <_>
          <internalNodes>
            0 -1 85 2110031166 12874133 -134118854 -1787250202
            -922324081 546333956 -1056902666 336159594</internalNodes>
          <leafValues>
            -6.6219991445541382e-001 2.9585504531860352e-001</leafValues></_>
        <_>
          <internalNodes>
            0 -1 20 -19416886 1112068235 -1073409918 1452036930
            -247304042 1644347425 -1300039198 -236984453</internalNodes>
          <leafValues>
            -4.7102138400077820e-001 4.3128129839897156e-001</leafValues></_>
        <_>
          <internalNodes>
            0 -1 69 -1191127960 -970914608 201446222 -754096373
            856300223 -595539381 650954063 -1150855802</internalNodes>
          <leafValues>
            -6.1278921365737915e-001 3.5306149721145630e-001</leafValues></_>
        <_>
          <internalNodes>
            0 -1 101 -1318104118 -1857695731 -871898940 -473775989
            -1060568060 134243857 1394724227 -34112745</internalNodes>
          <leafValues>
            -5.7429289817810059e-001 3.9564538002014160e-001</leafValues></_>
        <_>
          <internalNodes>
            0 -1 59 -943653510 -1870589364 -922713728 -1811920441
            268518134 -2110631932 2099274563 590070727</internalNodes>
          <leafValues>
            -5.9047061204910278e-001 3.9852941036224365e-001</leafValues></_>
        <_>
          <internalNodes>
            0 -1 57 -833140631 177977384 -1779918487 -1464598364
            675823778 27408394 -903706177 447127943</internalNodes>
          <leafValues>
            -5.2109628915786743e-001 4.8218125104904175e-001</leafValues></_></weakClassifiers></_>
    <!-- stage 13 -->
    <_>
      <maxWeakCount>8</maxWeakCount>
      <stageThreshold>-7.1303206682205200e-001</stageThreshold>
      <weakClassifiers>
        <_>
          <internalNodes>
            0 -1 81 -620963752 1569724770 18457025 1595248641
            -1427617493 -1120632663 21731503 -26227555</internalNodes>
          <leafValues>
            -5.3171855211257935e-001 3.4946757555007935e-001</leafValues></_>
        <_>
          <internalNodes>
            0 -1 45 -293579693 190661500 -2095549379 1162465617
            -1684295041 -1637170688 -1263998229 -1987126353</internalNodes>
          <leafValues>
            -4.6060460805892944e-001 4.2269742488861084e-001</leafValues></_>
        <_>
          <internalNodes>
            0 -1 41 -1099121231 -1394306229 -1069513245 -444825317
            373638261 1758015495 545577983 1293412035</internalNodes>
          <leafValues>
            -5.1058977842330933e-001 3.7577721476554871e-001</leafValues></_>
        <_>
          <internalNodes>
            0 -1 75 -619575328 470925520 288003355 344462657 -1056573228
            -1702460432 1493224148 1799379236</internalNodes>
          <leafValues>
            -6.1178421974182129e-001 3.5509642958641052e-001</leafValues></_>
        <_>
          <internalNodes>
            0 -1 79 -874234563 1333264185 -1968279557 -604243331
            -277284909 -12599435 -629673985 -79700001</internalNodes>
          <leafValues>
            -4.1516697406768799e-001 5.2579987049102783e-001</leafValues></_>
        <_>
          <internalNodes>
            0 -1 58 1458728110 594690053 -2012478842 2059981487
            -804388619 1613695360 2106649191 1748027955</internalNodes>
          <leafValues>
            -6.7918646335601807e-001 3.2884666323661804e-001</leafValues></_>
        <_>
          <internalNodes>
            0 -1 8 1871391918 -1572634546 587792532 -1949071226
            -1711168790 2089328768 -2094430021 -1386485086</internalNodes>
          <leafValues>
            -5.0368720293045044e-001 4.1862139105796814e-001</leafValues></_>
        <_>
          <internalNodes>
            0 -1 88 -883678876 -1810700287 -1019117561 -1178140657
            923985898 671459969 50793865 496519273</internalNodes>
          <leafValues>
            -7.0030498504638672e-001 3.1772118806838989e-001</leafValues></_></weakClassifiers></_>
    <!-- stage 14 -->
    <_>
      <maxWeakCount>8</maxWeakCount>
      <stageThreshold>-5.2202069759368896e-001</stageThreshold>
      <weakClassifiers>
        <_>
          <internalNodes>
            0 -1 63 -1759257381 -2020888070 -1845177921 -1752689210
            -1700659060 -808058621 1241685515 -93179104</internalNodes>
          <leafValues>
            -5.0159746408462524e-001 3.8605618476867676e-001</leafValues></_>
        <_>
          <internalNodes>
            0 -1 31 -213651993 -33591321 973012706 -235149522
            -1074284563 -713592833 -1476923409 896742181</internalNodes>
          <leafValues>
            -4.1122302412986755e-001 4.7211128473281860e-001</leafValues></_>
        <_>
          <internalNodes>
            0 -1 86 -36710673 2103390453 -888709873 1090617824 30317015
            -1463246680 155932802 1078753998</internalNodes>
          <leafValues>
            -4.6753370761871338e-001 4.1575151681900024e-001</leafValues></_>
        <_>
          <internalNodes>
            0 -1 110 -437258298 1534066603 -1090539864 -304513233
            -713132193 124780499 -3066186 -742397963</internalNodes>
          <leafValues>
            -3.9954435825347900e-001 4.9264910817146301e-001</leafValues></_>
        <_>
          <internalNodes>
            0 -1 26 2023092207 -1719467759 -1056731092 -582954867
            -1192923687 317197441 -1073665491 1145536676</internalNodes>
          <leafValues>
            -5.3431195020675659e-001 4.2458203434944153e-001</leafValues></_>
        <_>
          <internalNodes>
            0 -1 89 1976557246 1032624457 1426147264 1975552012
            -2146673546 906133592 -654163634 2054607701</internalNodes>
          <leafValues>
            -5.7123953104019165e-001 3.7090063095092773e-001</leafValues></_>
        <_>
          <internalNodes>
            0 -1 4 -1398748598 159387916 -1873797805 1070940681
            -930493953 -1708638167 -762804133 -560420116</internalNodes>
          <leafValues>
            -5.7708156108856201e-001 3.8954788446426392e-001</leafValues></_>
        <_>
          <internalNodes>
            0 -1 77 109265064 1348629124 2030883108 -1246145341
            713692478 852099241 -1434399232 1938016421</internalNodes>
          <leafValues>
            -6.6476160287857056e-001 2.9474875330924988e-001</leafValues></_></weakClassifiers></_>
    <!-- stage 15 -->
    <_>
      <maxWeakCount>8</maxWeakCount>
      <stageThreshold>-1.3210289478302002e+000</stageThreshold>
      <weakClassifiers>
        <_>
          <internalNodes>
            0 -1 74 -7441 -1158452509 -147362321 -60047639 -41977357
            -252263686 2012694486 -8912909</internalNodes>
          <leafValues>
            -4.1792368888854980e-001 4.7994825243949890e-001</leafValues></_>
        <_>
          <internalNodes>
            0 -1 33 374804165 533991915 -116796071 523070596 -777922054
            -1702159729 1342376651 2001948944</internalNodes>
          <leafValues>
            -5.6024390459060669e-001 3.3532899618148804e-001</leafValues></_>
        <_>
          <internalNodes>
            0 -1 65 -1315113296 1308857194 454476241 566235643
            -376764149 454664842 -963970449 562540224</internalNodes>
          <leafValues>
            -6.1749690771102905e-001 2.9720181226730347e-001</leafValues></_>
        <_>
          <internalNodes>
            0 -1 25 -823726089 1073737725 -1343316122 -17977604
            2122673620 -595591171 -268894484 -294130482</internalNodes>
          <leafValues>
            -3.6851787567138672e-001 5.2061742544174194e-001</leafValues></_>
        <_>
          <internalNodes>
            0 -1 93 470826496 994203675 1636999419 -1756941805 604072911
            914754202 1184486089 136814363</internalNodes>
          <leafValues>
            -7.7393770217895508e-001 2.5817587971687317e-001</leafValues></_>
        <_>
          <internalNodes>
            0 -1 56 1284298495 -199923518 185716867 -1114513514
            -2113654013 -628174645 -626058197 1894012702</internalNodes>
          <leafValues>
            -5.3097218275070190e-001 3.7969893217086792e-001</leafValues></_>
        <_>
          <internalNodes>
            0 -1 102 -349837454 -17842336 -33882264 -277087434
            2013216612 -33587209 2126241620 -11274445</internalNodes>
          <leafValues>
            -3.9438340067863464e-001 5.3365874290466309e-001</leafValues></_>
        <_>
          <internalNodes>
            0 -1 7 1855487572 -1355560803 22837909 2136271377 973138867
            -619568967 -1342139297 -165131574</internalNodes>
          <leafValues>
            -5.4079258441925049e-001 3.9563435316085815e-001</leafValues></_></weakClassifiers></_></stages>
  <features>
    <_>
      <rect>
        0 0 1 13</rect></_>
    <_>
      <rect>
        0 0 2 1</rect></_>
    <_>
      <rect>
        0 0 3 2</rect></_>
    <_>
      <rect>
        0 0 6 2</rect></_>
    <_>
      <rect>
        0 0 9 3</rect></_>
    <_>
      <rect>
        0 0 9 13</rect></_>
    <_>
      <rect>
        0 0 15 3</rect></_>
    <_>
      <rect>
        0 0 20 2</rect></_>
    <_>
      <rect>
        0 1 1 2</rect></_>
    <_>
      <rect>
        0 1 1 13</rect></_>
    <_>
      <rect>
        0 1 4 3</rect></_>
    <_>
      <rect>
        0 1 8 6</rect></_>
    <_>
      <rect>
        0 1 13 8</rect></_>
    <_>
      <rect>
        0 1 16 6</rect></_>
    <_>
      <rect>
        0 5 1 3</rect></_>
    <_>
      <rect>
        0 6 7 2</rect></_>
    <_>
      <rect>
        0 7 1 4</rect></_>
    <_>
      <rect>
        0 8 1 6</rect></_>
    <_>
      <rect>
        0 8 1 10</rect></_>
    <_>
      <rect>
        0 10 1 10</rect></_>
    <_>
      <rect>
        0 12 1 2</rect></_>
    <_>
      <rect>
        0 13 2 3</rect></_>
    <_>
      <rect>
        0 15 1 1</rect></_>
    <_>
      <rect>
        0 15 1 8</rect></_>
    <_>
      <rect>
        0 16 1 2</rect></_>
    <_>
      <rect>
        0 18 3 6</rect></_>
    <_>
      <rect>
        0 18 17 7</rect></_>
    <_>
      <rect>
        0 20 3 3</rect></_>
    <_>
      <rect>
        0 21 1 1</rect></_>
    <_>
      <rect>
        0 21 18 6</rect></_>
    <_>
      <rect>
        0 31 10 3</rect></_>
    <_>
      <rect>
        1 1 2 2</rect></_>
    <_>
      <rect>
        1 1 9 3</rect></_>
    <_>
      <rect>
        1 2 5 3</rect></_>
    <_>
      <rect>
        1 2 18 2</rect></_>
    <_>
      <rect>
        1 2 18 11</rect></_>
    <_>
      <rect>
        1 3 1 4</rect></_>
    <_>
      <rect>
        1 3 3 6</rect></_>
    <_>
      <rect>
        1 3 11 4</rect></_>
    <_>
      <rect>
        1 8 1 6</rect></_>
    <_>
      <rect>
        1 8 1 7</rect></_>
    <_>
      <rect>
        1 8 5 5</rect></_>
    <_>
      <rect>
        1 11 1 3</rect></_>
    <_>
      <rect>
        2 2 16 4</rect></_>
    <_>
      <rect>
        2 3 18 7</rect></_>
    <_>
      <rect>
        3 0 14 2</rect></_>
    <_>
      <rect>
        3 1 18 9</rect></_>
    <_>
      <rect>
        3 3 16 2</rect></_>
    <_>
      <rect>
        3 13 19 5</rect></_>
    <_>
      <rect>
        4 2 18 2</rect></_>
    <_>
      <rect>
        5 0 17 2</rect></_>
    <_>
      <rect>
        5 1 11 4</rect></_>
    <_>
      <rect>
        5 3 18 7</rect></_>
    <_>
      <rect>
        5 21 12 5</rect></_>
    <_>
      <rect>
        6 1 7 3</rect></_>
    <_>
      <rect>
        6 2 2 1</rect></_>
    <_>
      <rect>
        6 7 8 7</rect></_>
    <_>
      <rect>
        7 11 15 5</rect></_>
    <_>
      <rect>
        7 11 17 7</rect></_>
    <_>
      <rect>
        7 22 12 4</rect></_>
    <_>
      <rect>
        7 28 8 4</rect></_>
    <_>
      <rect>
        9 2 17 4</rect></_>
    <_>
      <rect>
        9 3 15 2</rect></_>
    <_>
      <rect>
        9 4 10 2</rect></_>
    <_>
      <rect>
        10 3 10 2</rect></_>
    <_>
      <rect>
        10 5 16 2</rect></_>
    <_>
      <rect>
        11 1 1 1</rect></_>
    <_>
      <rect>
        11 20 13 6</rect></_>
    <_>
      <rect>
        12 0 16 4</rect></_>
    <_>
      <rect>
        13 1 11 6</rect></_>
    <_>
      <rect>
        13 2 15 5</rect></_>
    <_>
      <rect>
        13 3 7 2</rect></_>
    <_>
      <rect>
        13 4 10 3</rect></_>
    <_>
      <rect>
        14 30 4 2</rect></_>
    <_>
      <rect>
        14 33 12 2</rect></_>
    <_>
      <rect>
        15 34 7 2</rect></_>
    <_>
      <rect>
        16 0 13 4</rect></_>
    <_>
      <rect>
        16 13 8 3</rect></_>
    <_>
      <rect>
        17 30 6 3</rect></_>
    <_>
      <rect>
        20 0 11 2</rect></_>
    <_>
      <rect>
        21 31 6 3</rect></_>
    <_>
      <rect>
        24 4 9 2</rect></_>
    <_>
      <rect>
        24 32 7 2</rect></_>
    <_>
      <rect>
        28 3 7 2</rect></_>
    <_>
      <rect>
        28 3 9 3</rect></_>
    <_>
      <rect>
        32 13 9 6</rect></_>
    <_>
      <rect>
        32 31 8 3</rect></_>
    <_>
      <rect>
        37 1 6 2</rect></_>
    <_>
      <rect>
        37 5 6 8</rect></_>
    <_>
      <rect>
        38 25 7 5</rect></_>
    <_>
      <rect>
        42 2 6 8</rect></_>
    <_>
      <rect>
        44 2 5 4</rect></_>
    <_>
      <rect>
        47 1 4 4</rect></_>
    <_>
      <rect>
        48 0 4 6</rect></_>
    <_>
      <rect>
        56 8 1 3</rect></_>
    <_>
      <rect>
        57 2 1 5</rect></_>
    <_>
      <rect>
        57 2 1 7</rect></_>
    <_>
      <rect>
        57 3 1 1</rect></_>
    <_>
      <rect>
        57 4 1 3</rect></_>
    <_>
      <rect>
        57 4 1 10</rect></_>
    <_>
      <rect>
        57 5 1 2</rect></_>
    <_>
      <rect>
        57 8 1 4</rect></_>
    <_>
      <rect>
        57 8 1 10</rect></_>
    <_>
      <rect>
        57 9 1 1</rect></_>
    <_>
      <rect>
        57 10 1 2</rect></_>
    <_>
      <rect>
        57 11 1 2</rect></_>
    <_>
      <rect>
        57 12 1 3</rect></_>
    <_>
      <rect>
        57 14 1 7</rect></_>
    <_>
      <rect>
        57 15 1 5</rect></_>
    <_>
      <rect>
        57 17 1 1</rect></_>
    <_>
      <rect>
        57 20 1 2</rect></_>
    <_>
      <rect>
        57 21 1 2</rect></_>
    <_>
      <rect>
        57 25 1 1</rect></_></features></cascade>
</opencv_storage>
