<?xml version="1.0"?>
<opencv_storage>
<stage13>
  <maxWeakCount>8</maxWeakCount>
  <stageThreshold>-7.1303206682205200e-001</stageThreshold>
  <weakClassifiers>
    <_>
      <internalNodes>
        0 -1 99497 -620963752 1569724770 18457025 1595248641 -1427617493
        -1120632663 21731503 -26227555</internalNodes>
      <leafValues>
        -5.3171855211257935e-001 3.4946757555007935e-001</leafValues></_>
    <_>
      <internalNodes>
        0 -1 15250 -293579693 190661500 -2095549379 1162465617
        -1684295041 -1637170688 -1263998229 -1987126353</internalNodes>
      <leafValues>
        -4.6060460805892944e-001 4.2269742488861084e-001</leafValues></_>
    <_>
      <internalNodes>
        0 -1 7049 -1099121231 -1394306229 -1069513245 -444825317
        373638261 1758015495 545577983 1293412035</internalNodes>
      <leafValues>
        -5.1058977842330933e-001 3.7577721476554871e-001</leafValues></_>
    <_>
      <internalNodes>
        0 -1 71438 -619575328 470925520 288003355 344462657 -1056573228
        -1702460432 1493224148 1799379236</internalNodes>
      <leafValues>
        -6.1178421974182129e-001 3.5509642958641052e-001</leafValues></_>
    <_>
      <internalNodes>
        0 -1 85931 -874234563 1333264185 -1968279557 -604243331
        -277284909 -12599435 -629673985 -79700001</internalNodes>
      <leafValues>
        -4.1516697406768799e-001 5.2579987049102783e-001</leafValues></_>
    <_>
      <internalNodes>
        0 -1 36335 1458728110 594690053 -2012478842 2059981487
        -804388619 1613695360 2106649191 1748027955</internalNodes>
      <leafValues>
        -6.7918646335601807e-001 3.2884666323661804e-001</leafValues></_>
    <_>
      <internalNodes>
        0 -1 261 1871391918 -1572634546 587792532 -1949071226
        -1711168790 2089328768 -2094430021 -1386485086</internalNodes>
      <leafValues>
        -5.0368720293045044e-001 4.1862139105796814e-001</leafValues></_>
    <_>
      <internalNodes>
        0 -1 132056 -883678876 -1810700287 -1019117561 -1178140657
        923985898 671459969 50793865 496519273</internalNodes>
      <leafValues>
        -7.0030498504638672e-001 3.1772118806838989e-001</leafValues></_></weakClassifiers></stage13>
</opencv_storage>
