<?xml version="1.0"?>
<opencv_storage>
<stage5>
  <maxWeakCount>7</maxWeakCount>
  <stageThreshold>-6.3497883081436157e-001</stageThreshold>
  <weakClassifiers>
    <_>
      <internalNodes>
        0 -1 5899 -8225 254803950 -65537 1610592253 -648098226
        -268436415 1324769151 -1680869412</internalNodes>
      <leafValues>
        -4.8087432980537415e-001 5.3366583585739136e-001</leafValues></_>
    <_>
      <internalNodes>
        0 -1 1905 -17316626 1241551629 -2146238454 -2142514751
        1073856571 1795276803 -1450667302 -459283761</internalNodes>
      <leafValues>
        -4.6312606334686279e-001 4.9996787309646606e-001</leafValues></_>
    <_>
      <internalNodes>
        0 -1 153266 -9440630 -435695027 67276998 -585903918 1881295105
        1073776643 -352192320 -151002293</internalNodes>
      <leafValues>
        -4.3474769592285156e-001 5.2072215080261230e-001</leafValues></_>
    <_>
      <internalNodes>
        0 -1 51688 -1094053670 1609056244 -1090637827 1974419435
        -1208025601 -1610645513 -1392599109 -16779570</internalNodes>
      <leafValues>
        -4.3077120184898376e-001 5.9893256425857544e-001</leafValues></_>
    <_>
      <internalNodes>
        0 -1 4167 1950219699 -663752553 1158631685 1468257473 1887717926
        1679693205 1761794917 1082646465</internalNodes>
      <leafValues>
        -5.3419953584671021e-001 4.9636280536651611e-001</leafValues></_>
    <_>
      <internalNodes>
        0 -1 131717 -1995935688 1099366417 -1048020577 -540311031
        -763038637 -114454445 -1845443809 -1461012392</internalNodes>
      <leafValues>
        -5.3154885768890381e-001 4.9312481284141541e-001</leafValues></_>
    <_>
      <internalNodes>
        0 -1 66 -1374945080 939950295 -1795051169 2101989779 -469710853
        254509249 -75451655 1976194890</internalNodes>
      <leafValues>
        -7.0294857025146484e-001 3.4419128298759460e-001</leafValues></_></weakClassifiers></stage5>
</opencv_storage>
