<?xml version="1.0"?>
<opencv_storage>
<stage14>
  <maxWeakCount>8</maxWeakCount>
  <stageThreshold>-5.2202069759368896e-001</stageThreshold>
  <weakClassifiers>
    <_>
      <internalNodes>
        0 -1 43859 -1759257381 -2020888070 -1845177921 -1752689210
        -1700659060 -808058621 1241685515 -93179104</internalNodes>
      <leafValues>
        -5.0159746408462524e-001 3.8605618476867676e-001</leafValues></_>
    <_>
      <internalNodes>
        0 -1 5461 -213651993 -33591321 973012706 -235149522 -1074284563
        -713592833 -1476923409 896742181</internalNodes>
      <leafValues>
        -4.1122302412986755e-001 4.7211128473281860e-001</leafValues></_>
    <_>
      <internalNodes>
        0 -1 122895 -36710673 2103390453 -888709873 1090617824 30317015
        -1463246680 155932802 1078753998</internalNodes>
      <leafValues>
        -4.6753370761871338e-001 4.1575151681900024e-001</leafValues></_>
    <_>
      <internalNodes>
        0 -1 153338 -437258298 1534066603 -1090539864 -304513233
        -713132193 124780499 -3066186 -742397963</internalNodes>
      <leafValues>
        -3.9954435825347900e-001 4.9264910817146301e-001</leafValues></_>
    <_>
      <internalNodes>
        0 -1 3778 2023092207 -1719467759 -1056731092 -582954867
        -1192923687 317197441 -1073665491 1145536676</internalNodes>
      <leafValues>
        -5.3431195020675659e-001 4.2458203434944153e-001</leafValues></_>
    <_>
      <internalNodes>
        0 -1 134989 1976557246 1032624457 1426147264 1975552012
        -2146673546 906133592 -654163634 2054607701</internalNodes>
      <leafValues>
        -5.7123953104019165e-001 3.7090063095092773e-001</leafValues></_>
    <_>
      <internalNodes>
        0 -1 106 -1398748598 159387916 -1873797805 1070940681 -930493953
        -1708638167 -762804133 -560420116</internalNodes>
      <leafValues>
        -5.7708156108856201e-001 3.8954788446426392e-001</leafValues></_>
    <_>
      <internalNodes>
        0 -1 73567 109265064 1348629124 2030883108 -1246145341 713692478
        852099241 -1434399232 1938016421</internalNodes>
      <leafValues>
        -6.6476160287857056e-001 2.9474875330924988e-001</leafValues></_></weakClassifiers></stage14>
</opencv_storage>
