<?xml version="1.0"?>
<opencv_storage>
<stage12>
  <maxWeakCount>8</maxWeakCount>
  <stageThreshold>-7.0444452762603760e-001</stageThreshold>
  <weakClassifiers>
    <_>
      <internalNodes>
        0 -1 301 1602392495 1632700195 293609444 1226834466 -1562787621
        -1952823142 290821275 1464299850</internalNodes>
      <leafValues>
        -5.7091778516769409e-001 3.5721018910408020e-001</leafValues></_>
    <_>
      <internalNodes>
        0 -1 48037 389275259 757461266 -1845357089 -1860978223 411862174
        -1975557477 -25257029 1049852076</internalNodes>
      <leafValues>
        -4.4175076484680176e-001 4.4630998373031616e-001</leafValues></_>
    <_>
      <internalNodes>
        0 -1 122004 2110031166 12874133 -134118854 -1787250202
        -922324081 546333956 -1056902666 336159594</internalNodes>
      <leafValues>
        -6.6219991445541382e-001 2.9585504531860352e-001</leafValues></_>
    <_>
      <internalNodes>
        0 -1 2681 -19416886 1112068235 -1073409918 1452036930 -247304042
        1644347425 -1300039198 -236984453</internalNodes>
      <leafValues>
        -4.7102138400077820e-001 4.3128129839897156e-001</leafValues></_>
    <_>
      <internalNodes>
        0 -1 60130 -1191127960 -970914608 201446222 -754096373 856300223
        -595539381 650954063 -1150855802</internalNodes>
      <leafValues>
        -6.1278921365737915e-001 3.5306149721145630e-001</leafValues></_>
    <_>
      <internalNodes>
        0 -1 153238 -1318104118 -1857695731 -871898940 -473775989
        -1060568060 134243857 1394724227 -34112745</internalNodes>
      <leafValues>
        -5.7429289817810059e-001 3.9564538002014160e-001</leafValues></_>
    <_>
      <internalNodes>
        0 -1 37682 -943653510 -1870589364 -922713728 -1811920441
        268518134 -2110631932 2099274563 590070727</internalNodes>
      <leafValues>
        -5.9047061204910278e-001 3.9852941036224365e-001</leafValues></_>
    <_>
      <internalNodes>
        0 -1 36315 -833140631 177977384 -1779918487 -1464598364
        675823778 27408394 -903706177 447127943</internalNodes>
      <leafValues>
        -5.2109628915786743e-001 4.8218125104904175e-001</leafValues></_></weakClassifiers></stage12>
</opencv_storage>
