<?xml version="1.0"?>
<opencv_storage>
<stage9>
  <maxWeakCount>7</maxWeakCount>
  <stageThreshold>-5.8441942930221558e-001</stageThreshold>
  <weakClassifiers>
    <_>
      <internalNodes>
        0 -1 2309 -319815681 2092760830 -69966 -75829250 -1073808129
        2147287037 -268435473 -356515841</internalNodes>
      <leafValues>
        -3.5928145051002502e-001 6.7375886440277100e-001</leafValues></_>
    <_>
      <internalNodes>
        0 -1 153178 -24424182 -26509337 -229393 -1124368689 -1208056571
        1862254451 1962925995 -203686421</internalNodes>
      <leafValues>
        -3.6327686905860901e-001 5.6886053085327148e-001</leafValues></_>
    <_>
      <internalNodes>
        0 -1 5553 780705464 -1383362495 520262139 499865923 -23266678
        -156628981 1854033550 2017928874</internalNodes>
      <leafValues>
        -6.5580666065216064e-001 3.2494387030601501e-001</leafValues></_>
    <_>
      <internalNodes>
        0 -1 27 -538809462 -139776537 -1409877001 959671213 -285212741
        -671252494 -1897398806 -1578954789</internalNodes>
      <leafValues>
        -4.3066594004631042e-001 5.0084036588668823e-001</leafValues></_>
    <_>
      <internalNodes>
        0 -1 60660 -1515074854 -1383348136 21322549 -980037231
        -1693431598 -608566965 845694863 210824289</internalNodes>
      <leafValues>
        -5.8496040105819702e-001 4.0413203835487366e-001</leafValues></_>
    <_>
      <internalNodes>
        0 -1 2871 -358618142 -1907485938 50514254 -895430106 391852865
        -1737912183 -1299059373 -254625578</internalNodes>
      <leafValues>
        -5.9711301326751709e-001 3.4784904122352600e-001</leafValues></_>
    <_>
      <internalNodes>
        0 -1 152977 -106213461 15138702 2130603754 1761589158
        -1612728481 350060405 2095051310 -331399285</internalNodes>
      <leafValues>
        -4.3504244089126587e-001 5.3021657466888428e-001</leafValues></_></weakClassifiers></stage9>
</opencv_storage>
