<?xml version="1.0"?>
<opencv_storage>
<stage4>
  <maxWeakCount>6</maxWeakCount>
  <stageThreshold>-1.1247700452804565e+000</stageThreshold>
  <weakClassifiers>
    <_>
      <internalNodes>
        0 -1 20693 902157565 -889137907 -519976677 -304510051 -586659258
        -614465527 -1425761457 -356435236</internalNodes>
      <leafValues>
        -5.5991733074188232e-001 4.7424891591072083e-001</leafValues></_>
    <_>
      <internalNodes>
        0 -1 5925 -52953210 804257767 788375328 -1 2004318054 -559107
        2147450743 -201326781</internalNodes>
      <leafValues>
        -3.8208889961242676e-001 6.5330702066421509e-001</leafValues></_>
    <_>
      <internalNodes>
        0 -1 153298 -38275121 -198681 -553861312 -151846914 2138570500
        2113830911 -8538640 -9963625</internalNodes>
      <leafValues>
        -3.1399643421173096e-001 8.0455595254898071e-001</leafValues></_>
    <_>
      <internalNodes>
        0 -1 143181 1346376981 1976398303 -116822737 -11820839
        -389006109 -87521085 747812938 13923807</internalNodes>
      <leafValues>
        -6.4085924625396729e-001 4.1764390468597412e-001</leafValues></_>
    <_>
      <internalNodes>
        0 -1 1527 -1186029594 -1152936207 1501889119 1506383041
        592671033 1931677954 2055991971 1196904257</internalNodes>
      <leafValues>
        -6.3762205839157104e-001 4.1916900873184204e-001</leafValues></_>
    <_>
      <internalNodes>
        0 -1 60362 -543009198 -201143036 -1995323020 1307358544
        -1837104694 -6241910 738388842 650538920</internalNodes>
      <leafValues>
        -7.5808131694793701e-001 3.5121077299118042e-001</leafValues></_></weakClassifiers></stage4>
</opencv_storage>
