<?xml version="1.0"?>
<opencv_storage>
<stage0>
  <maxWeakCount>6</maxWeakCount>
  <stageThreshold>-1.0124175548553467e+000</stageThreshold>
  <weakClassifiers>
    <_>
      <internalNodes>
        0 -1 1909 -352327958 784121854 -50397528 684388094 -17825796
        -8585217 -545292802 -387973121</internalNodes>
      <leafValues>
        -5.8176946640014648e-001 7.0550578832626343e-001</leafValues></_>
    <_>
      <internalNodes>
        0 -1 153199 -8132862 -286539930 -1114208 -1367974092 -601129708
        -16513 2139062036 -152838333</internalNodes>
      <leafValues>
        -5.1384639739990234e-001 7.8697919845581055e-001</leafValues></_>
    <_>
      <internalNodes>
        0 -1 43537 -204473400 -640991096 -1610573425 -785712999
        -393592768 -39157698 -1608993874 -486540305</internalNodes>
      <leafValues>
        -6.4373123645782471e-001 6.4068424701690674e-001</leafValues></_>
    <_>
      <internalNodes>
        0 -1 2681 -1048914 82837487 -285442518 1760552703 -1208058586
        822017919 -134238489 -402653257</internalNodes>
      <leafValues>
        -5.5344486236572266e-001 6.7034566402435303e-001</leafValues></_>
    <_>
      <internalNodes>
        0 -1 153203 -105941754 -1074069506 -1091063898 -1732296705
        1067410756 -673876105 2013204327 -201596997</internalNodes>
      <leafValues>
        -5.0431996583938599e-001 6.9690984487533569e-001</leafValues></_>
    <_>
      <internalNodes>
        0 -1 25594 -33563726 -178566525 -1987952614 1964110993
        1091195084 965313162 1208738122 557923215</internalNodes>
      <leafValues>
        -7.2637128829956055e-001 5.1014351844787598e-001</leafValues></_></weakClassifiers></stage0>
</opencv_storage>
